8.101307458021951291e-01,-2.556010219535664874e-03,-2.716281179829860282e-03,-2.822053771148858026e-03,-6.117754493146498884e-04,-1.816380302555736792e-05,3.087619748138453746e-05,9.026441553630915049e-04,3.036123541734665754e-04,5.626381112323539102e-05,-1.519409209304427300e-04,-1.243146974205539684e-03,2.746152861218887908e-01,-1.167313867478661504e-03,-1.941191572049666414e-03,-1.081233735431244569e-03,2.574097998886374361e-01,-8.702764556612757607e-04,-1.166602336241218119e-03,-8.265970193530453036e-04,-5.006264943337210283e-03,-3.883620334664064644e-04,5.296254842953665443e-04,2.408849985514188718e-04,-4.654461994241163719e-03,-4.905956932689491123e-04,-1.553454906161495785e-04,-4.482117270748313398e-04,-2.790442681705394001e-01,1.629050826687031273e-03,1.209126654179132343e-03,1.030484396759137611e-03,2.040886913203879272e-04,-2.203666994698566528e-04,1.587341927726665380e-04,-1.296899671179088664e-04,2.793292402598896440e-01,-7.362181745217966089e-04,-1.200227350742766319e-03,-1.018837037015551950e-03,-2.794526157269900946e-01,1.275298499887750348e-03,1.093697485143985126e-03,1.493554102827532315e-03,-2.108264737774588962e-02,-4.083843661225154686e-04,-2.952710277215157830e-04,4.912966507665192384e-05,3.079040438013630476e-04,-8.179624879940464166e-04,1.704500804863909313e-04,3.435777114401267207e-04,-2.787449787881844387e-01,1.611174353937219750e-03,6.652521037269765181e-04,5.938575512308558180e-04,2.793242549701859256e-01,-1.502175558618715212e-03,-5.548595536910005954e-04,-1.330234243122757620e-04,-2.152545939078444673e-02,6.604415517901425503e-04,5.750114949064459580e-04,-7.612531619760991297e-04
