8.147396526224700564e-01,-8.938040880197561933e-04,5.121717342821963115e-04,2.698358570394533418e-01,2.705360751894273497e-01,-4.317551685529219530e-03,-3.717205221386243874e-03,-2.754700575250378369e-01,-2.543457725533437852e-04,2.747863460982264416e-01,-2.744603507704228007e-01,-3.867767675404643057e-03,1.222121165628808903e-04,-2.737082141350530295e-01,2.745445197153779660e-01,-4.756325081255563525e-03,-1.609648800482094480e-02,7.148678156647138293e-04,-6.965050554791872572e-04,-5.086398220295790945e-03,-4.837889353475417070e-03,9.358677833194682660e-04,-4.034285204704869676e-04,4.492487488539028545e-03,-2.997322923352606361e-04,-6.026397825751272225e-03,6.049836168507374129e-03,9.476816658965901696e-04,4.317509472879475785e-04,5.430231385426569773e-03,-4.840157167152591561e-03,-6.331324833374445127e-04,-1.630964449955238371e-02,-1.011331024041377258e-03,1.266690153000266106e-03,-4.786598802770845873e-03,-5.737641811537668585e-03,-8.990577296937966867e-04,8.040105613690319564e-04,5.521487336645359428e-03,7.112171186482683927e-04,-4.799730158574409128e-03,4.764968102109971154e-03,-3.995270880898064980e-04,-4.421386689706582884e-05,5.189617944941830180e-03,-6.367710424051865187e-03,2.114488630807175029e-04,-1.638478525461540061e-02,3.401085128237543720e-05,3.968092705338918669e-05,-4.560602787103563288e-03,-5.757687441802831346e-03,2.362146526492490961e-04,-3.214341934808587209e-05,5.825890049233031082e-03,-3.765453277106249608e-04,-5.395694443071818308e-03,4.828476503719602436e-03,-3.698148875050134843e-04,4.056195074794537170e-04,5.075213389137144676e-03,-5.251443202389179804e-03,-1.441806842549901713e-04
