7.404979921059258174e-01,2.516533492219181767e-01,-1.792114671010980320e-03,-2.478127691005713173e-02,1.292805862736071468e-02,4.132515944959638116e-03,-2.308017956951641941e-03,-3.822337500149607797e-03,-1.049022624792019832e-02,-4.314215835203982080e-04,-3.143444235487095548e-03,-4.484184473134244023e-03,1.461789206218519488e-02,7.174033476772416484e-03,8.444930582844612649e-03,1.152256207182536865e-02,-2.798464622975602167e-03,-7.257476984101618456e-05,2.471534588257557896e-01,-2.558031737570363173e-01,-4.102012538476539766e-03,-3.834185902461002132e-03,-1.796998992090928851e-02,6.117081765800481963e-04,1.309454937693471134e-02,3.458303810331282355e-03,8.289601658451896046e-03,1.537811192104361971e-03,-3.823785335348193343e-03,-2.219702343996772520e-03,2.254236392261393246e-03,-3.342239181772926893e-04,2.216040657053525154e-03,5.643852923029851754e-03,-2.534287356032395300e-01,2.575999014727653469e-01,1.262401853840904205e-02,8.992259590117594389e-03,1.123674363125684063e-02,-8.172976136533125283e-03,-1.260376980921345050e-02,-6.327597460924250933e-03,-3.191543789662593805e-03,-1.092031098807722672e-03,4.324752708110019689e-04,-4.482516752357243103e-03,2.254786566718970306e-03,5.463065029866742348e-03,2.620704966044208883e-01,-2.451179704718501884e-01,-4.941141140185345559e-03,1.845699157257592316e-02,-1.273879072524203467e-02,-6.371605082348503687e-03,5.391977034351491324e-03,2.832142602427126579e-03,9.608652593309421203e-03,2.461615110604508522e-03,-1.961640125046629907e-03,4.349057283684048397e-03,-8.590661897930075216e-03,-1.292571094054193077e-02,-1.844102017927845213e-03,-1.300315026835023070e-02
