7.520998760451034215e-01,2.388786833847954261e-01,-2.305891678682503443e-03,-1.223581093831718758e-02,1.363039422211653751e-02,5.454060638600766175e-03,2.506185915682351273e-01,-2.504139591564798484e-01,-4.354588842493900547e-03,-7.787643679558323151e-03,-2.429704748954185922e-01,2.521483776599369730e-01,2.612504675071285476e-01,-2.370171113067275903e-01,3.929342488001530409e-03,9.256658751349955416e-03,-2.204835915572725749e-03,-1.348600557451182583e-03,2.967039753276628014e-03,5.906428972263984625e-03,-1.061010306892580177e-03,-6.916997367469231509e-03,-8.905455820607402831e-03,5.161043564524620333e-03,8.111542209372494400e-03,8.615360560063619472e-03,1.022220742986626463e-02,-6.392918813203092576e-03,-1.047181541525525270e-02,4.692676268335280870e-03,1.925249586544212910e-03,2.208892198565785836e-03,4.783447547704411038e-03,3.166573092300820416e-03,4.857882692989938869e-03,-2.843932784538568195e-03,7.100286551401586640e-03,1.386966992843407902e-02,1.354763296244841826e-02,-6.339057008507743493e-03,-5.010933459475098994e-03,-1.329208880311143204e-02,-1.642616410385189241e-02,3.216744115442440877e-04,5.673830325607259403e-03,-1.001245247978929144e-02,-3.349463109839948341e-03,-5.435979393900178605e-03,8.400357766009088414e-03,1.011056156164065294e-02,4.910647369259132575e-03,1.370667166089755730e-02,-1.119550309635843587e-02,-7.096869052854023682e-03,-5.403408726220493632e-03,8.467204050486201033e-04,2.760014731696409929e-03,9.209848666036253573e-03,-2.859034792521517043e-03,-6.519874021926497232e-03,-1.379910210148532768e-02,-1.114520760979153396e-02,-6.516105899178503691e-03,-1.871042134361965842e-02
