7.494755143334510539e-01,1.511974881032371321e-02,-5.871534671593181542e-04,5.145444277676464173e-03,2.478654508349467656e-01,-4.600161703125632551e-03,1.479813770793485250e-02,5.193330532412443468e-03,-2.047444178959162420e-03,-8.203497509906468310e-03,4.855769181828412800e-03,3.018271588602385036e-04,-6.741564892073023327e-03,4.692385837312311805e-03,2.812984225412115333e-03,3.547463778152097277e-03,-1.819709553604744595e-03,1.578248263317740679e-02,-2.815410866772442844e-03,-5.327928819722275305e-03,-1.662082733592105260e-02,-6.587678815239571620e-03,6.445643808809841183e-03,8.653522231299429560e-03,2.391563005600059744e-01,-2.037304009827093504e-02,7.205721699799272351e-03,4.600310988037738247e-03,-2.523532894812829941e-01,1.009664818177104934e-02,1.829479193339450527e-03,-3.015332236490329831e-03,4.664273132662417540e-03,-6.792006465689831921e-03,-4.871977082095730813e-03,-5.621131563893957267e-04,2.205935637498618318e-02,6.956542746764823176e-03,-5.116367788556366175e-03,-1.494088565203463559e-02,-2.455190184337240344e-01,1.555558135444191914e-02,-2.752211022597386703e-03,3.754930292029917682e-04,2.509642561177294340e-01,-9.410859940848018135e-03,-9.235014379257722172e-04,7.024921063676345390e-03,2.529295350910799600e-01,-8.882536153767550680e-03,-5.267259240758076499e-03,-1.119733427372521239e-02,-2.456441016580416803e-01,2.940305526300264483e-03,-1.186254787667795352e-02,-7.059880083945875573e-03,1.141613638010619686e-04,9.699820663529911194e-03,-1.067287177928024668e-02,1.111234995489073993e-03,1.128728048733079747e-02,-9.221315736591902817e-03,2.954028827791457812e-03,-4.425130008159670197e-03
