7.361632843607135435e-01,-7.501292431918077375e-03,-2.626884066365076098e-03,2.602215464464049388e-01,2.419572954313026769e-01,7.903276189300978416e-03,-5.745158401026517758e-04,-2.399555665004566851e-01,5.700925337256690373e-04,2.621842601406231266e-01,-2.594716371781183861e-01,8.563368265697979265e-04,-2.498684744216994602e-03,-2.429225148491022113e-01,2.482992020917595410e-01,2.397424634084488471e-03,2.771790013883345533e-04,1.888495491496755205e-03,3.406951436256385260e-03,-6.904011687918589976e-03,1.157935566449676615e-02,6.853903396520189678e-03,-4.972548093284435977e-04,-7.603599475436460114e-03,-1.083861779418215238e-02,1.283515782136993716e-02,-1.180476982200186903e-02,4.522038930641972265e-04,9.359848181665429701e-03,1.420260745897732046e-03,-6.313573448733789117e-06,-5.088523997726322745e-03,-5.815105560756273981e-03,-1.892952640752837770e-03,-1.367947423482068423e-03,4.465526122915687221e-03,-9.491395108119932839e-04,-9.578127579879568490e-03,-1.925628666710026138e-05,3.687678523705344505e-03,1.221101351148379775e-02,-1.585122659345887530e-02,1.636273115492392627e-02,-7.011842515875119433e-03,-4.125622542630266038e-03,8.797211110793273087e-03,-4.912608402098828791e-03,8.233609706603559758e-03,1.139193066804477898e-02,7.188501803315741970e-03,-9.654521667892910358e-04,-6.341904840714255795e-03,4.092511828533445042e-03,-1.339181724846412111e-03,2.857258457809553828e-03,-7.482388337022598604e-03,-1.592819935722187760e-03,-6.617511122334140614e-03,-1.194655319206877273e-03,3.279651938527335456e-03,-1.187544609414691033e-03,-3.881764408098287156e-03,-6.419815800180000975e-03,-4.352645022232530525e-03
