7.345663863489704237e-01,2.595174594160011283e-01,1.124130570266723694e-02,-2.005595162246270879e-03,-7.325281181315285162e-03,-7.507201488195905381e-03,2.502729541187053153e-01,-2.429681363791588722e-01,-2.329637029580930441e-03,2.604490869268616393e-03,-2.415643519799265948e-01,2.478974320848678081e-01,2.545466248768022410e-01,-2.581373217794127317e-01,-1.450549402213563432e-03,8.077976716773682675e-03,7.362016770459074017e-03,1.299135575271989293e-02,6.507766771719204063e-03,2.825385705197174663e-03,-4.335807249745634445e-03,5.384392743568455070e-03,-4.653362018536149475e-03,6.994683295413483409e-03,-5.192390009785129157e-03,-7.612608768993583963e-03,-2.364225708413880689e-04,7.752431767579039124e-03,-1.068152514004409512e-03,-6.690714955868917388e-03,-7.872646578317680707e-03,-1.221826109935467662e-02,-1.390391180996898915e-02,-1.661934030452071401e-02,-7.519602119717787997e-03,3.767706568379384363e-03,5.500266409596173134e-03,4.696259207241357259e-03,5.892158154629810463e-03,2.930090698957527051e-04,2.375549019679091059e-03,4.079743694626889253e-03,-5.160136900621699677e-03,-7.150929616529593316e-03,2.066031281078996307e-03,7.676653803682709221e-03,9.976636602491151251e-03,1.102987559788829591e-02,1.417084943355390730e-02,-4.423798407880472072e-03,-5.293550580081698986e-03,-4.026895785834892771e-03,5.120623735585218966e-03,5.140378292299286472e-03,-2.589858886978619462e-03,-1.625701834009545682e-03,-5.286884060298058588e-03,-1.129986770462878751e-03,-3.804450468428295304e-03,-1.268765713442353629e-03,-6.724674605473969502e-03,1.820796226502927051e-03,7.330270363768709441e-05,-2.525574709734419721e-03
