7.401543214695629480e-01,1.717972045426563454e-03,-5.302876525916655481e-04,3.837880009546046356e-03,2.383937351108925962e-01,6.614758311229498866e-04,-2.959877963791518463e-03,1.236625184713095044e-02,-7.806411931909527924e-03,-1.264316174007832499e-02,3.993502335511850410e-04,9.671564749785567516e-03,4.339214478109015144e-03,4.780210956892863572e-03,-1.236250184652386633e-02,-1.197395553504681381e-02,7.099622576823276521e-03,7.547623797247882127e-03,-2.082704184747732196e-03,-4.204813599356021364e-03,4.550286499466846962e-03,5.934099898690266273e-04,3.854614987209362131e-03,-9.998934070569003019e-03,2.541061656600870355e-01,1.027703856738969995e-02,-2.002269502985543070e-03,1.643747733336357875e-03,-2.500965741371198869e-01,2.767222934218438457e-03,-4.573970181769249077e-03,6.501968343547714912e-03,3.560267610746473133e-03,-6.893083585288173332e-03,2.752644560883827501e-03,-8.863961795891363293e-04,-1.126854736866079662e-02,-5.544927269694060329e-03,-2.561229292471184360e-03,8.590280913014648745e-03,-2.531693177941798378e-01,-6.884811436961638109e-03,-7.852552338713514324e-05,6.162874030915491130e-03,2.452479093177248326e-01,-5.849956273628539871e-03,1.352875306150476409e-02,-5.722277575564274632e-03,2.584924588718910954e-01,5.466772511365111664e-03,1.455854048219129560e-03,-1.453958589704720805e-03,-2.428197153413591824e-01,-2.144334492660666946e-03,1.243151228707300993e-03,-9.389543647052807362e-03,1.171981680157851806e-02,2.528529070718094421e-03,4.323693594149023364e-03,-9.623792050579524013e-03,-5.505292457239100920e-03,-1.301638848235691683e-02,1.656184280018847821e-02,7.149033464043505828e-03
